digraph Tree {
node [shape=box, fontname="helvetica"] ;
edge [fontname="helvetica"] ;
0 [label="Age <= 0.349\ngini = 0.325\nsamples = 8000\nvalue = [6368, 1632]\nclass = 0"] ;
1 [label="NumOfProducts <= 1.675\ngini = 0.209\nsamples = 5707\nvalue = [5029, 678]\nclass = 0"] ;
0 -> 1 [labeldistance=2.5, labelangle=45, headlabel="True"] ;
2 [label="NumOfProducts <= -0.056\ngini = 0.188\nsamples = 5583\nvalue = [4998, 585]\nclass = 0"] ;
1 -> 2 ;
3 [label="Age <= -0.034\ngini = 0.278\nsamples = 2756\nvalue = [2297, 459]\nclass = 0"] ;
2 -> 3 ;
4 [label="Balance <= -0.295\ngini = 0.236\nsamples = 2128\nvalue = [1837, 291]\nclass = 0"] ;
3 -> 4 ;
5 [label="gini = 0.323\nsamples = 366\nvalue = [292, 74]\nclass = 0"] ;
4 -> 5 ;
6 [label="gini = 0.216\nsamples = 1762\nvalue = [1545, 217]\nclass = 0"] ;
4 -> 6 ;
7 [label="CreditScore <= -2.444\ngini = 0.392\nsamples = 628\nvalue = [460, 168]\nclass = 0"] ;
3 -> 7 ;
8 [label="gini = 0.0\nsamples = 4\nvalue = [0, 4]\nclass = 1"] ;
7 -> 8 ;
9 [label="gini = 0.387\nsamples = 624\nvalue = [460, 164]\nclass = 0"] ;
7 -> 9 ;
10 [label="Balance <= -0.107\ngini = 0.085\nsamples = 2827\nvalue = [2701, 126]\nclass = 0"] ;
2 -> 10 ;
11 [label="Age <= -0.321\ngini = 0.044\nsamples = 1703\nvalue = [1665, 38]\nclass = 0"] ;
10 -> 11 ;
12 [label="gini = 0.027\nsamples = 1034\nvalue = [1020, 14]\nclass = 0"] ;
11 -> 12 ;
13 [label="gini = 0.069\nsamples = 669\nvalue = [645, 24]\nclass = 0"] ;
11 -> 13 ;
14 [label="Balance <= 2.074\ngini = 0.144\nsamples = 1124\nvalue = [1036, 88]\nclass = 0"] ;
10 -> 14 ;
15 [label="gini = 0.14\nsamples = 1120\nvalue = [1035, 85]\nclass = 0"] ;
14 -> 15 ;
16 [label="gini = 0.375\nsamples = 4\nvalue = [1, 3]\nclass = 1"] ;
14 -> 16 ;
17 [label="Balance <= -0.845\ngini = 0.375\nsamples = 124\nvalue = [31, 93]\nclass = 1"] ;
1 -> 17 ;
18 [label="EstimatedSalary <= 0.617\ngini = 0.5\nsamples = 50\nvalue = [25, 25]\nclass = 0"] ;
17 -> 18 ;
19 [label="Age <= -0.608\ngini = 0.461\nsamples = 36\nvalue = [23, 13]\nclass = 0"] ;
18 -> 19 ;
20 [label="gini = 0.0\nsamples = 11\nvalue = [11, 0]\nclass = 0"] ;
19 -> 20 ;
21 [label="gini = 0.499\nsamples = 25\nvalue = [12, 13]\nclass = 1"] ;
19 -> 21 ;
22 [label="CreditScore <= 1.056\ngini = 0.245\nsamples = 14\nvalue = [2, 12]\nclass = 1"] ;
18 -> 22 ;
23 [label="gini = 0.142\nsamples = 13\nvalue = [1, 12]\nclass = 1"] ;
22 -> 23 ;
24 [label="gini = 0.0\nsamples = 1\nvalue = [1, 0]\nclass = 0"] ;
22 -> 24 ;
25 [label="EstimatedSalary <= 1.536\ngini = 0.149\nsamples = 74\nvalue = [6, 68]\nclass = 1"] ;
17 -> 25 ;
26 [label="Age <= -0.321\ngini = 0.106\nsamples = 71\nvalue = [4, 67]\nclass = 1"] ;
25 -> 26 ;
27 [label="gini = 0.238\nsamples = 29\nvalue = [4, 25]\nclass = 1"] ;
26 -> 27 ;
28 [label="gini = 0.0\nsamples = 42\nvalue = [0, 42]\nclass = 1"] ;
26 -> 28 ;
29 [label="EstimatedSalary <= 1.563\ngini = 0.444\nsamples = 3\nvalue = [2, 1]\nclass = 0"] ;
25 -> 29 ;
30 [label="gini = 0.0\nsamples = 1\nvalue = [1, 0]\nclass = 0"] ;
29 -> 30 ;
31 [label="gini = 0.5\nsamples = 2\nvalue = [1, 1]\nclass = 0"] ;
29 -> 31 ;
32 [label="NumOfProducts <= 1.675\ngini = 0.486\nsamples = 2293\nvalue = [1339, 954]\nclass = 0"] ;
0 -> 32 [labeldistance=2.5, labelangle=-45, headlabel="False"] ;
33 [label="NumOfProducts <= -0.056\ngini = 0.472\nsamples = 2160\nvalue = [1334, 826]\nclass = 0"] ;
32 -> 33 ;
34 [label="Age <= 2.55\ngini = 0.499\nsamples = 1283\nvalue = [617, 666]\nclass = 1"] ;
33 -> 34 ;
35 [label="Age <= 0.54\ngini = 0.495\nsamples = 1174\nvalue = [526, 648]\nclass = 1"] ;
34 -> 35 ;
36 [label="gini = 0.477\nsamples = 219\nvalue = [133, 86]\nclass = 0"] ;
35 -> 36 ;
37 [label="gini = 0.484\nsamples = 955\nvalue = [393, 562]\nclass = 1"] ;
35 -> 37 ;
38 [label="Age <= 2.837\ngini = 0.276\nsamples = 109\nvalue = [91, 18]\nclass = 0"] ;
34 -> 38 ;
39 [label="gini = 0.414\nsamples = 41\nvalue = [29, 12]\nclass = 0"] ;
38 -> 39 ;
40 [label="gini = 0.161\nsamples = 68\nvalue = [62, 6]\nclass = 0"] ;
38 -> 40 ;
41 [label="Balance <= -0.538\ngini = 0.298\nsamples = 877\nvalue = [717, 160]\nclass = 0"] ;
33 -> 41 ;
42 [label="CreditScore <= -1.181\ngini = 0.143\nsamples = 466\nvalue = [430, 36]\nclass = 0"] ;
41 -> 42 ;
43 [label="gini = 0.282\nsamples = 53\nvalue = [44, 9]\nclass = 0"] ;
42 -> 43 ;
44 [label="gini = 0.122\nsamples = 413\nvalue = [386, 27]\nclass = 0"] ;
42 -> 44 ;
45 [label="Age <= 0.732\ngini = 0.421\nsamples = 411\nvalue = [287, 124]\nclass = 0"] ;
41 -> 45 ;
46 [label="gini = 0.323\nsamples = 153\nvalue = [122, 31]\nclass = 0"] ;
45 -> 46 ;
47 [label="gini = 0.461\nsamples = 258\nvalue = [165, 93]\nclass = 0"] ;
45 -> 47 ;
48 [label="Age <= 2.598\ngini = 0.072\nsamples = 133\nvalue = [5, 128]\nclass = 1"] ;
32 -> 48 ;
49 [label="EstimatedSalary <= -0.583\ngini = 0.016\nsamples = 126\nvalue = [1, 125]\nclass = 1"] ;
48 -> 49 ;
50 [label="EstimatedSalary <= -0.587\ngini = 0.061\nsamples = 32\nvalue = [1, 31]\nclass = 1"] ;
49 -> 50 ;
51 [label="gini = 0.0\nsamples = 31\nvalue = [0, 31]\nclass = 1"] ;
50 -> 51 ;
52 [label="gini = 0.0\nsamples = 1\nvalue = [1, 0]\nclass = 0"] ;
50 -> 52 ;
53 [label="gini = 0.0\nsamples = 94\nvalue = [0, 94]\nclass = 1"] ;
49 -> 53 ;
54 [label="Balance <= -0.528\ngini = 0.49\nsamples = 7\nvalue = [4, 3]\nclass = 0"] ;
48 -> 54 ;
55 [label="gini = 0.0\nsamples = 4\nvalue = [4, 0]\nclass = 0"] ;
54 -> 55 ;
56 [label="gini = 0.0\nsamples = 3\nvalue = [0, 3]\nclass = 1"] ;
54 -> 56 ;
}